<?xml version="1.0"?>
<opencv_storage>
<!-- Created using Computer Vision System Toolbox(tm) for MATLAB(R) -->
<!-- Version 9.1.0.441655 (R2016b) -->
<!-- Compatible with OpenCV 2.4 -->
<cascade>
  <stageType>BOOST</stageType>
  <featureType>HOG</featureType>
  <height>32</height>
  <width>33</width>
  <stageParams>
    <boostType>GAB</boostType>
    <minHitRate>9.9500000476837158e-01</minHitRate>
    <maxFalseAlarm>1.0000000149011612e-01</maxFalseAlarm>
    <weightTrimRate>9.4999999999999996e-01</weightTrimRate>
    <maxDepth>1</maxDepth>
    <maxWeakCount>100</maxWeakCount></stageParams>
  <featureParams>
    <maxCatCount>0</maxCatCount>
    <featSize>36</featSize></featureParams>
  <stageNum>5</stageNum>
  <stages>
    <!-- stage 0 -->
    <_>
      <maxWeakCount>1</maxWeakCount>
      <stageThreshold>8.2795697450637817e-01</stageThreshold>
      <weakClassifiers>
        <_>
          <internalNodes>
            0 -1 0 4.2334228754043579e-02</internalNodes>
          <leafValues>
            -1. 8.2795697450637817e-01</leafValues></_></weakClassifiers></_>
    <!-- stage 1 -->
    <_>
      <maxWeakCount>2</maxWeakCount>
      <stageThreshold>-1.1880227923393250e-01</stageThreshold>
      <weakClassifiers>
        <_>
          <internalNodes>
            0 -1 10 4.2945176362991333e-02</internalNodes>
          <leafValues>
            -9.6363633871078491e-01 8.2222223281860352e-01</leafValues></_>
        <_>
          <internalNodes>
            0 -1 13 4.2875379323959351e-02</internalNodes>
          <leafValues>
            -9.2275816202163696e-01 8.4483408927917480e-01</leafValues></_></weakClassifiers></_>
    <!-- stage 2 -->
    <_>
      <maxWeakCount>3</maxWeakCount>
      <stageThreshold>5.1281732320785522e-01</stageThreshold>
      <weakClassifiers>
        <_>
          <internalNodes>
            0 -1 5 7.5628504157066345e-02</internalNodes>
          <leafValues>
            -9.1616767644882202e-01 7.7272725105285645e-01</leafValues></_>
        <_>
          <internalNodes>
            0 -1 9 4.8455413430929184e-02</internalNodes>
          <leafValues>
            -8.8045632839202881e-01 7.8723376989364624e-01</leafValues></_>
        <_>
          <internalNodes>
            0 -1 12 2.2063568234443665e-02</internalNodes>
          <leafValues>
            -9.5726162195205688e-01 6.4175122976303101e-01</leafValues></_></weakClassifiers></_>
    <!-- stage 3 -->
    <_>
      <maxWeakCount>4</maxWeakCount>
      <stageThreshold>-4.5803573727607727e-01</stageThreshold>
      <weakClassifiers>
        <_>
          <internalNodes>
            0 -1 6 1.1869347095489502e-01</internalNodes>
          <leafValues>
            -8.0434781312942505e-01 8.8732391595840454e-01</leafValues></_>
        <_>
          <internalNodes>
            0 -1 4 1.3735843822360039e-02</internalNodes>
          <leafValues>
            6.5898340940475464e-01 -8.7569153308868408e-01</leafValues></_>
        <_>
          <internalNodes>
            0 -1 11 1.9821887835860252e-02</internalNodes>
          <leafValues>
            6.5577501058578491e-01 -8.2058537006378174e-01</leafValues></_>
        <_>
          <internalNodes>
            0 -1 14 4.3921574950218201e-02</internalNodes>
          <leafValues>
            -9.5780354738235474e-01 5.6622862815856934e-01</leafValues></_></weakClassifiers></_>
    <!-- stage 4 -->
    <_>
      <maxWeakCount>5</maxWeakCount>
      <stageThreshold>-3.9076931774616241e-02</stageThreshold>
      <weakClassifiers>
        <_>
          <internalNodes>
            0 -1 8 1.0604570060968399e-01</internalNodes>
          <leafValues>
            -8.3999997377395630e-01 7.7499997615814209e-01</leafValues></_>
        <_>
          <internalNodes>
            0 -1 1 7.7049635350704193e-02</internalNodes>
          <leafValues>
            -7.1952563524246216e-01 6.1525535583496094e-01</leafValues></_>
        <_>
          <internalNodes>
            0 -1 7 1.8402356654405594e-02</internalNodes>
          <leafValues>
            -8.9328908920288086e-01 5.2301591634750366e-01</leafValues></_>
        <_>
          <internalNodes>
            0 -1 3 4.1091471910476685e-02</internalNodes>
          <leafValues>
            -8.5969036817550659e-01 4.8672255873680115e-01</leafValues></_>
        <_>
          <internalNodes>
            0 -1 2 1.7489045858383179e-02</internalNodes>
          <leafValues>
            -8.0962884426116943e-01 5.9223425388336182e-01</leafValues></_></weakClassifiers></_></stages>
  <features>
    <_>
      <rect>
        0 16 8 8 6</rect></_>
    <_>
      <rect>
        4 0 8 8 1</rect></_>
    <_>
      <rect>
        4 8 8 8 12</rect></_>
    <_>
      <rect>
        4 12 8 8 6</rect></_>
    <_>
      <rect>
        4 12 8 8 26</rect></_>
    <_>
      <rect>
        4 16 8 8 24</rect></_>
    <_>
      <rect>
        8 12 8 8 8</rect></_>
    <_>
      <rect>
        8 16 8 8 30</rect></_>
    <_>
      <rect>
        12 12 8 8 8</rect></_>
    <_>
      <rect>
        16 4 8 8 15</rect></_>
    <_>
      <rect>
        12 0 8 16 28</rect></_>
    <_>
      <rect>
        0 0 16 8 17</rect></_>
    <_>
      <rect>
        0 0 16 8 34</rect></_>
    <_>
      <rect>
        0 4 16 8 1</rect></_>
    <_>
      <rect>
        0 4 16 8 26</rect></_></features></cascade>
</opencv_storage>
